0.15979445747371507
0.8718070658132444
0.38705662167951665
1.4620969533837804
-2.3019255189407213
0.7659755371732285
-0.2895279448457329
-0.8749145793899021
1.8817248665977822
-3.406773159210484
-4.106952278476895
0.4938813982692623
5.069780306814804
1.9648458324284364
-0.5232105779167505
0.633521610186747
0.10268057053455132
4.201422258246579
-0.03935729032319818
1.2611482656596997
2.3649111270683076
0.01690497306645444
-4.337553578399266
0.5148442696485019
2.003146192485098
-3.571038361340792
-2.686249870777662
6.907693506306664
4.757091023201982
-1.0184143328361552
2.781246880595943
0.1629400613726369
1.1098764393447684
2.165929220410588
2.1637755465930297
-3.566724046520858
0.3374911090884118
-0.7262987965375619
1.216098647265543
2.620614303095908
0.6049568948309824
-7.568034231407639
0.0479241618752899
-0.05607881537359272
-3.494601738705562
2.496339053428877
0.9901048790808735
0.7352406865557684
1.6462936635443908
-2.629326255763399
4.904204514851832
2.7980238468899703
4.082353042561153
0.11600919265788916
2.654512327847372
3.0120789223950517
3.931411879864832
2.984128357804757
-2.4822170861320703
3.7983736185606474
-0.08747155560834967
-5.16873818235407
-0.025438856206304282
0.84137880065258
-1.762393309082841
-0.07526209595419162
-1.0142981076641913
-2.325536261036465
0.07816192106923933
-0.3995739087905986
-8.390086199530199
-2.240523078465662
-7.621459725267764
0.6998650672484896
1.911608523959946
1.97672279665372
-1.0182128398375172
4.510438285195627
0.5338647901239669
1.529665266553592
0.23132158092490324
3.1145064016641424
-3.96691012742092
-2.1357235982302414
-3.5097212888809386
0.15169048354323814
5.79024299786511
1.125735362051795
0.96669700372938
-3.14984992757543
-2.5946561589969357
1.2686138145690238
0.2836867841680679
-2.3421570088039734
4.418480949032178
-2.4693751765467473
-0.45632110629447953
3.8618620641670076
0.9624048139728746
3.343745706132214
-3.1498681932905845
0.9918629894635977
1.1712461540847643
-1.435132621345067
-3.7861644902131073
1.4469246235741857
1.1283204645632303
-0.12318326889519503
0.6227192648821445
-0.8194282714954585
-3.233888535620913
-1.445595665953332
0.5272195637081588
2.7362901257088743
-1.314846211716377
-4.987181212417534
1.173665365299052
-0.6202116152259984
2.9444698086405867
-4.472930449136067
0.5980543228494816
0.9753654107025926
3.3667221612631817
-3.8746346453882494
1.099667632309285
0.884994048566177
-0.014004776099281543
1.2233514354533537
0.6550078604080523
-1.7744900185409942
-1.864472058690525
-0.9022288438807274
-0.30587088983379507
-0.9737766858302549
1.0107720471568544
-1.7246070970907525
10.558868806549983
-4.105314347263302
1.8115404669848614
-4.833869280122015
-3.0809983759429316
0.48721853093568696
-3.804900923270489
2.0250833255094527
2.777768608629034
-3.7093564527405007
-4.291274187092447
1.3334728270626715
-1.9195885731089473
6.585852682761068
-2.765909296198439
1.410703145107741
-1.4397111450674624
-1.7976367059937113
-0.701217376584581
3.903100343585064
0.4686738986431919
0.21972844672441552
-0.8301467317706119
1.6861443923731867
-1.5993382740516109
1.3817063753028025
1.0271323585217356
0.5407951589066782
1.2659293798682851
-3.6404719706721007
-3.9857633808266764
12.618875477310251
-1.4550292533052516
-1.785646621053881
-4.930516216993633
-0.34223093750303085
-3.0995145328147804
-1.9490660780005054
3.0032819846077605
4.2253095726802234
2.4978716126173093
-2.685116219553192
2.9735598923601536
-3.2114517410364627
7.310847226493542
1.082494589729006
0.351604770224753
-6.761677340851592
-7.939248235481544
7.140903877128805
5.049728590589584
-0.053084573592227256
4.605388377076896
-1.8992708006937808
-1.7927608330987872
6.148771419395849
1.9210329902298848
4.899341552398715
2.9936877835634115
0.6713567405975395
0.8137265422748883
-3.6165007566941676
-0.2967424965401252
-2.4696502111390144
1.723735053273069
1.4197701582311018
-0.31096290168758317
-2.6827436820865507
0.14780501262355425
4.67390283298918
2.6043400444460723
1.3894746005625835
1.766084850071833
3.580730545305003
-1.8889957780750737
-1.4149788210498837
-3.7860236379189485
4.109451687321928
-1.6072474386902351
-1.189067127202686
-4.795051630309697
7.5111146736248395
-0.5729399922660481
4.48640307222679
-7.929744788987396
-1.321444808043192
0.12035971130769761
0.30841292056997366
-0.5753933103085618
2.3012912061393314
-3.896321231593825
2.5489291608028974
3.18266270939925
-2.604265716283466
-2.9219448839499362
3.452348376900483
-0.07530889149073258
-2.3383821526337587
-1.6037816992539842
-3.928202916422756
1.0854490068471239
10.825624259059879
1.3170590187693414
0.886741468441929
-0.20044585302061732
0.7261463551804898
2.3983925148292884
4.970373321871777
-3.9747594803325534
-1.1029300615611028
2.3715058017532433
-1.2645094829759858
3.056806051332674
2.0619454993047523
-3.3198899551664147
1.8695766662261473
2.186571439141367
0.13980365165222924
0.39959846876436994
0.4701338696822236
