0.22461306364541997
0.7935254411176842
-0.7666766413026057
0.6214212648274907
-4.184452445596919
6.109088121607042
-1.0398761905448224
5.14180628820862
-1.9681885264610706
3.8231639674661277
-4.263362476192101
-0.46108654716346287
2.1793399131001374
0.2239589327196611
1.2561061511361222
-0.04987903582139678
-0.17886406476931663
0.864243669426089
-2.486896488577077
3.176528363218252
-0.7390888943942416
0.9923948684838761
-4.1977375265117685
2.852794192916456
-0.9320860496560822
-1.6014847799005638
0.8472645716963584
6.66953949349766
-3.4198219686864104
1.627697309800269
2.4690362546414777
0.11469741538104518
-0.4817079178679325
4.857987600847203
3.9479497937075196
-1.8128220330946139
-2.080794502334718
1.2438222682218047
1.4427189477379638
-3.2791517750647343
-2.502360724626463
2.5853612185146333
-1.1453160770094235
1.4551722120655528
-3.960502363359876
4.854579196430057
0.30569689696189806
-0.3292662230632935
1.0155973821337028
8.108827245320182
1.1845299376350231
4.590131196799487
3.7628974953701624
7.355928279460523
3.009498189902615
4.04275569349315
0.32120434193106406
1.5490772676030649
0.9819240972291996
1.7139246315709176
3.1794264320815584
-3.1984713538154543
-4.100333675479196
1.401852526746696
0.23867202775672727
0.08078079783471152
-1.93592171508354
-4.409121637086199
-2.71320375249918
-5.275134523050032
-3.5169316124166876
-4.045770361842015
-4.3298061680307445
0.1220798755074627
-3.4620478380778645
-0.46195785167385794
-1.6306927421975987
4.04555482651666
5.626835964945201
0.543818923700629
5.209769745533246
-2.0211741309359077
2.304910338317099
-4.087344294595397
2.2570644899077976
-4.675363230671235
7.455152758195146
-1.8709044842758227
1.8793443961861014
-4.343534637679609
-1.8987753324809065
2.651201489762346
1.06094062846864
-2.898696079125446
-0.25131423553289073
1.0524705298229002
0.9464482314961562
-1.7926809142298468
-2.22656623046337
2.019656396535994
1.313705274324209
2.753250023611066
-2.7584194159773068
2.1470011834151066
1.5008035176424601
-1.467583955766649
-2.0468811055926257
1.062337109793165
2.1870123863472304
-2.4047425976548262
-4.857103832932132
-2.105105266157526
4.309845858367453
1.2232022482879037
1.9234298420506706
-2.1330664917441795
2.381715722909016
-4.788891215611975
-3.226836311266961
3.978062576967906
1.5578006382536744
0.1018734963194808
0.41666522083164875
0.05435860645727772
-3.535644900689726
3.3298752195039656
3.2874408315389942
5.577035462256707
6.7257870087087746
-2.1278247296856856
-2.1390931568394382
-1.8919150918284031
-8.10292247468346
5.933570817888671
0.16968911746797133
-4.7336010723472945
-1.2610001806950981
6.570560233835247
-1.2759110710883843
-3.714054311024063
-1.2529892083505119
1.6531249354438773
-3.4527670651887625
-2.0581516910093693
0.04946748251641268
-6.311185604121239
2.25051633213867
-0.30534974847972046
-0.3195599962300705
2.9994843834386953
0.9126428336862329
-2.0517948517084657
0.556661202895895
1.6288886433259804
0.5790248285460446
-0.5360071961431471
-2.037866245309408
-2.9229029953589976
1.6670810038077195
6.242805836899445
-1.8537644302648
3.702686911754212
-6.743460147940488
0.171356491465491
-1.1830336538055735
-1.6883539618083123
0.03659828194120038
6.935410497041695
-1.1065496675225979
-3.426892601075398
3.17751411938979
-5.139562103610759
-0.4361084648738515
-4.2282552548187
2.6589434013765936
-0.3018678135061727
7.109583143858746
-2.780421545960591
1.028134719654602
2.8900285307334768
5.881666430627433
-2.234758685585101
4.231928283135751
-9.137539495806848
-6.211593843617031
3.2867546116103203
3.2902981492447614
2.4905741938387873
2.0645253846500036
5.159005437470518
-2.2698709314754706
1.4831953236176945
1.30473429189239
3.6880568230633846
3.016991599967834
-0.17606362368308268
1.0174137128340504
1.0403731148324007
-3.4862880032553156
4.329456910540441
3.166988251249655
-3.0657615941781033
-1.5004830632555761
-2.668689635337033
0.37778588746331726
2.3422392749736876
2.1050523280184503
-0.0027873631016113965
0.8755900877363316
0.1283999432166706
3.196664112352657
-3.4861222582224483
-0.5742935116566108
1.5124393096734412
0.5444005035640267
-1.6541902488096807
-6.0060719578805
0.07034174680554174
-1.6147749676484737
10.589715124542769
-1.4956351981666047
-2.803022490991044
-5.461996872890021
1.5294896802666236
0.2325807547330746
0.5888676801615657
-1.7292721828973456
2.322351113807016
-1.1622008630116603
0.2423162501892657
1.073602668904648
1.7171086099192885
-1.7614420954218373
-0.5463368103729165
-1.0728808881269238
-1.1986227220414505
0.36241027952936933
3.9691897341514566
1.4714638567650509
0.7158340926623191
-0.1572013844833279
0.166185516435885
-0.003994154866198758
1.601535765405847
2.8219070720993407
-2.4157350137080282
1.7393332899018328
4.7343967264786055
-0.08730281476855349
-2.131966133442961
-0.5840864532634311
1.352035415649257
1.9886990323690539
0.6767648888290217
0.8802358687451162
-0.0829110301187185
